digraph Tree {
node [shape=box, style="filled, rounded", color="black", fontname=helvetica] ;
edge [fontname=helvetica] ;
0 [label="petal width (cm) <= 0.8\ngini = 0.66\nsamples = 93\nvalue = [58, 51, 41]\nclass = setosa", fillcolor="#e5813912"] ;
1 [label="gini = 0.0\nsamples = 34\nvalue = [58, 0, 0]\nclass = setosa", fillcolor="#e58139ff"] ;
0 -> 1 [labeldistance=2.5, labelangle=45, headlabel="True"] ;
2 [label="sepal length (cm) <= 6.25\ngini = 0.49\nsamples = 59\nvalue = [0, 51, 41]\nclass = versicolor", fillcolor="#39e58132"] ;
0 -> 2 [labeldistance=2.5, labelangle=-45, headlabel="False"] ;
3 [label="petal length (cm) <= 4.85\ngini = 0.38\nsamples = 28\nvalue = [0, 37, 13]\nclass = versicolor", fillcolor="#39e581a5"] ;
2 -> 3 ;
4 [label="petal width (cm) <= 1.65\ngini = 0.14\nsamples = 20\nvalue = [0, 36, 3]\nclass = versicolor", fillcolor="#39e581ea"] ;
3 -> 4 ;
5 [label="gini = 0.0\nsamples = 17\nvalue = [0, 32, 0]\nclass = versicolor", fillcolor="#39e581ff"] ;
4 -> 5 ;
6 [label="petal width (cm) <= 1.75\ngini = 0.49\nsamples = 3\nvalue = [0, 4, 3]\nclass = versicolor", fillcolor="#39e58140"] ;
4 -> 6 ;
7 [label="gini = 0.0\nsamples = 1\nvalue = [0, 0, 2]\nclass = virginica", fillcolor="#8139e5ff"] ;
6 -> 7 ;
8 [label="sepal length (cm) <= 5.95\ngini = 0.32\nsamples = 2\nvalue = [0, 4, 1]\nclass = versicolor", fillcolor="#39e581bf"] ;
6 -> 8 ;
9 [label="gini = 0.0\nsamples = 1\nvalue = [0, 4, 0]\nclass = versicolor", fillcolor="#39e581ff"] ;
8 -> 9 ;
10 [label="gini = 0.0\nsamples = 1\nvalue = [0, 0, 1]\nclass = virginica", fillcolor="#8139e5ff"] ;
8 -> 10 ;
11 [label="petal width (cm) <= 1.7\ngini = 0.17\nsamples = 8\nvalue = [0, 1, 10]\nclass = virginica", fillcolor="#8139e5e6"] ;
3 -> 11 ;
12 [label="petal width (cm) <= 1.55\ngini = 0.38\nsamples = 3\nvalue = [0, 1, 3]\nclass = virginica", fillcolor="#8139e5aa"] ;
11 -> 12 ;
13 [label="gini = 0.0\nsamples = 2\nvalue = [0, 0, 3]\nclass = virginica", fillcolor="#8139e5ff"] ;
12 -> 13 ;
14 [label="gini = 0.0\nsamples = 1\nvalue = [0, 1, 0]\nclass = versicolor", fillcolor="#39e581ff"] ;
12 -> 14 ;
15 [label="gini = 0.0\nsamples = 5\nvalue = [0, 0, 7]\nclass = virginica", fillcolor="#8139e5ff"] ;
11 -> 15 ;
16 [label="petal width (cm) <= 1.75\ngini = 0.44\nsamples = 31\nvalue = [0, 14, 28]\nclass = virginica", fillcolor="#8139e57f"] ;
2 -> 16 ;
17 [label="petal length (cm) <= 5.4\ngini = 0.12\nsamples = 10\nvalue = [0, 14, 1]\nclass = versicolor", fillcolor="#39e581ed"] ;
16 -> 17 ;
18 [label="gini = 0.0\nsamples = 9\nvalue = [0, 14, 0]\nclass = versicolor", fillcolor="#39e581ff"] ;
17 -> 18 ;
19 [label="gini = 0.0\nsamples = 1\nvalue = [0, 0, 1]\nclass = virginica", fillcolor="#8139e5ff"] ;
17 -> 19 ;
20 [label="gini = 0.0\nsamples = 21\nvalue = [0, 0, 27]\nclass = virginica", fillcolor="#8139e5ff"] ;
16 -> 20 ;
}